digraph Tree {
node [shape=box] ;
0 [label="G2 <= 14.5\ngini = 0.453\nsamples = 835\nvalue = [82, 590, 163]"] ;
1 [label="G2 <= 7.5\ngini = 0.285\nsamples = 703\nvalue = [82, 588, 33]"] ;
0 -> 1 [labeldistance=2.5, labelangle=45, headlabel="True"] ;
2 [label="G2 <= 6.5\ngini = 0.344\nsamples = 77\nvalue = [60, 17, 0]"] ;
1 -> 2 ;
3 [label="famrel <= 3.5\ngini = 0.153\nsamples = 48\nvalue = [44, 4, 0]"] ;
2 -> 3 ;
4 [label="G2 <= 5.5\ngini = 0.346\nsamples = 18\nvalue = [14, 4, 0]"] ;
3 -> 4 ;
5 [label="Pstatus <= 0.5\ngini = 0.165\nsamples = 11\nvalue = [10, 1, 0]"] ;
4 -> 5 ;
6 [label="guardian_father <= 0.5\ngini = 0.444\nsamples = 3\nvalue = [2, 1, 0]"] ;
5 -> 6 ;
7 [label="gini = 0.0\nsamples = 2\nvalue = [2, 0, 0]"] ;
6 -> 7 ;
8 [label="gini = 0.0\nsamples = 1\nvalue = [0, 1, 0]"] ;
6 -> 8 ;
9 [label="gini = 0.0\nsamples = 8\nvalue = [8, 0, 0]"] ;
5 -> 9 ;
10 [label="age <= 17.5\ngini = 0.49\nsamples = 7\nvalue = [4, 3, 0]"] ;
4 -> 10 ;
11 [label="activities <= 0.5\ngini = 0.32\nsamples = 5\nvalue = [4, 1, 0]"] ;
10 -> 11 ;
12 [label="gini = 0.0\nsamples = 3\nvalue = [3, 0, 0]"] ;
11 -> 12 ;
13 [label="Dalc <= 1.5\ngini = 0.5\nsamples = 2\nvalue = [1, 1, 0]"] ;
11 -> 13 ;
14 [label="gini = 0.0\nsamples = 1\nvalue = [0, 1, 0]"] ;
13 -> 14 ;
15 [label="gini = 0.0\nsamples = 1\nvalue = [1, 0, 0]"] ;
13 -> 15 ;
16 [label="gini = 0.0\nsamples = 2\nvalue = [0, 2, 0]"] ;
10 -> 16 ;
17 [label="gini = 0.0\nsamples = 30\nvalue = [30, 0, 0]"] ;
3 -> 17 ;
18 [label="goout <= 1.5\ngini = 0.495\nsamples = 29\nvalue = [16, 13, 0]"] ;
2 -> 18 ;
19 [label="gini = 0.0\nsamples = 3\nvalue = [3, 0, 0]"] ;
18 -> 19 ;
20 [label="Dalc <= 2.5\ngini = 0.5\nsamples = 26\nvalue = [13, 13, 0]"] ;
18 -> 20 ;
21 [label="age <= 16.5\ngini = 0.491\nsamples = 23\nvalue = [10, 13, 0]"] ;
20 -> 21 ;
22 [label="goout <= 4.5\ngini = 0.473\nsamples = 13\nvalue = [8, 5, 0]"] ;
21 -> 22 ;
23 [label="famrel <= 3.5\ngini = 0.496\nsamples = 11\nvalue = [6, 5, 0]"] ;
22 -> 23 ;
24 [label="schoolsup <= 0.5\ngini = 0.375\nsamples = 4\nvalue = [3, 1, 0]"] ;
23 -> 24 ;
25 [label="gini = 0.0\nsamples = 3\nvalue = [3, 0, 0]"] ;
24 -> 25 ;
26 [label="gini = 0.0\nsamples = 1\nvalue = [0, 1, 0]"] ;
24 -> 26 ;
27 [label="schoolsup <= 0.5\ngini = 0.49\nsamples = 7\nvalue = [3, 4, 0]"] ;
23 -> 27 ;
28 [label="goout <= 3.5\ngini = 0.32\nsamples = 5\nvalue = [1, 4, 0]"] ;
27 -> 28 ;
29 [label="gini = 0.0\nsamples = 3\nvalue = [0, 3, 0]"] ;
28 -> 29 ;
30 [label="Pstatus <= 0.5\ngini = 0.5\nsamples = 2\nvalue = [1, 1, 0]"] ;
28 -> 30 ;
31 [label="gini = 0.0\nsamples = 1\nvalue = [0, 1, 0]"] ;
30 -> 31 ;
32 [label="gini = 0.0\nsamples = 1\nvalue = [1, 0, 0]"] ;
30 -> 32 ;
33 [label="gini = 0.0\nsamples = 2\nvalue = [2, 0, 0]"] ;
27 -> 33 ;
34 [label="gini = 0.0\nsamples = 2\nvalue = [2, 0, 0]"] ;
22 -> 34 ;
35 [label="reason_other <= 0.5\ngini = 0.32\nsamples = 10\nvalue = [2, 8, 0]"] ;
21 -> 35 ;
36 [label="gini = 0.0\nsamples = 8\nvalue = [0, 8, 0]"] ;
35 -> 36 ;
37 [label="gini = 0.0\nsamples = 2\nvalue = [2, 0, 0]"] ;
35 -> 37 ;
38 [label="gini = 0.0\nsamples = 3\nvalue = [3, 0, 0]"] ;
20 -> 38 ;
39 [label="G2 <= 13.5\ngini = 0.164\nsamples = 626\nvalue = [22, 571, 33]"] ;
1 -> 39 ;
40 [label="G2 <= 8.5\ngini = 0.092\nsamples = 562\nvalue = [22, 535, 5]"] ;
39 -> 40 ;
41 [label="age <= 16.5\ngini = 0.339\nsamples = 60\nvalue = [13, 47, 0]"] ;
40 -> 41 ;
42 [label="Pstatus <= 0.5\ngini = 0.1\nsamples = 19\nvalue = [1, 18, 0]"] ;
41 -> 42 ;
43 [label="activities <= 0.5\ngini = 0.5\nsamples = 2\nvalue = [1, 1, 0]"] ;
42 -> 43 ;
44 [label="gini = 0.0\nsamples = 1\nvalue = [0, 1, 0]"] ;
43 -> 44 ;
45 [label="gini = 0.0\nsamples = 1\nvalue = [1, 0, 0]"] ;
43 -> 45 ;
46 [label="gini = 0.0\nsamples = 17\nvalue = [0, 17, 0]"] ;
42 -> 46 ;
47 [label="famrel <= 4.5\ngini = 0.414\nsamples = 41\nvalue = [12, 29, 0]"] ;
41 -> 47 ;
48 [label="Pstatus <= 0.5\ngini = 0.337\nsamples = 28\nvalue = [6, 22, 0]"] ;
47 -> 48 ;
49 [label="famrel <= 3.5\ngini = 0.5\nsamples = 4\nvalue = [2, 2, 0]"] ;
48 -> 49 ;
50 [label="gini = 0.0\nsamples = 2\nvalue = [2, 0, 0]"] ;
49 -> 50 ;
51 [label="gini = 0.0\nsamples = 2\nvalue = [0, 2, 0]"] ;
49 -> 51 ;
52 [label="Dalc <= 1.5\ngini = 0.278\nsamples = 24\nvalue = [4, 20, 0]"] ;
48 -> 52 ;
53 [label="gini = 0.0\nsamples = 10\nvalue = [0, 10, 0]"] ;
52 -> 53 ;
54 [label="guardian_mother <= 0.5\ngini = 0.408\nsamples = 14\nvalue = [4, 10, 0]"] ;
52 -> 54 ;
55 [label="gini = 0.0\nsamples = 5\nvalue = [0, 5, 0]"] ;
54 -> 55 ;
56 [label="Dalc <= 2.5\ngini = 0.494\nsamples = 9\nvalue = [4, 5, 0]"] ;
54 -> 56 ;
57 [label="reason_other <= 0.5\ngini = 0.444\nsamples = 6\nvalue = [4, 2, 0]"] ;
56 -> 57 ;
58 [label="goout <= 3.0\ngini = 0.48\nsamples = 5\nvalue = [3, 2, 0]"] ;
57 -> 58 ;
59 [label="famrel <= 3.5\ngini = 0.5\nsamples = 2\nvalue = [1, 1, 0]"] ;
58 -> 59 ;
60 [label="gini = 0.0\nsamples = 1\nvalue = [0, 1, 0]"] ;
59 -> 60 ;
61 [label="gini = 0.0\nsamples = 1\nvalue = [1, 0, 0]"] ;
59 -> 61 ;
62 [label="famrel <= 3.5\ngini = 0.444\nsamples = 3\nvalue = [2, 1, 0]"] ;
58 -> 62 ;
63 [label="gini = 0.0\nsamples = 1\nvalue = [1, 0, 0]"] ;
62 -> 63 ;
64 [label="gini = 0.5\nsamples = 2\nvalue = [1, 1, 0]"] ;
62 -> 64 ;
65 [label="gini = 0.0\nsamples = 1\nvalue = [1, 0, 0]"] ;
57 -> 65 ;
66 [label="gini = 0.0\nsamples = 3\nvalue = [0, 3, 0]"] ;
56 -> 66 ;
67 [label="schoolsup <= 0.5\ngini = 0.497\nsamples = 13\nvalue = [6, 7, 0]"] ;
47 -> 67 ;
68 [label="Dalc <= 1.5\ngini = 0.486\nsamples = 12\nvalue = [5, 7, 0]"] ;
67 -> 68 ;
69 [label="activities <= 0.5\ngini = 0.444\nsamples = 9\nvalue = [3, 6, 0]"] ;
68 -> 69 ;
70 [label="gini = 0.0\nsamples = 2\nvalue = [0, 2, 0]"] ;
69 -> 70 ;
71 [label="goout <= 4.0\ngini = 0.49\nsamples = 7\nvalue = [3, 4, 0]"] ;
69 -> 71 ;
72 [label="age <= 17.5\ngini = 0.5\nsamples = 4\nvalue = [2, 2, 0]"] ;
71 -> 72 ;
73 [label="gini = 0.0\nsamples = 1\nvalue = [0, 1, 0]"] ;
72 -> 73 ;
74 [label="gini = 0.444\nsamples = 3\nvalue = [2, 1, 0]"] ;
72 -> 74 ;
75 [label="age <= 17.5\ngini = 0.444\nsamples = 3\nvalue = [1, 2, 0]"] ;
71 -> 75 ;
76 [label="gini = 0.5\nsamples = 2\nvalue = [1, 1, 0]"] ;
75 -> 76 ;
77 [label="gini = 0.0\nsamples = 1\nvalue = [0, 1, 0]"] ;
75 -> 77 ;
78 [label="activities <= 0.5\ngini = 0.444\nsamples = 3\nvalue = [2, 1, 0]"] ;
68 -> 78 ;
79 [label="gini = 0.5\nsamples = 2\nvalue = [1, 1, 0]"] ;
78 -> 79 ;
80 [label="gini = 0.0\nsamples = 1\nvalue = [1, 0, 0]"] ;
78 -> 80 ;
81 [label="gini = 0.0\nsamples = 1\nvalue = [1, 0, 0]"] ;
67 -> 81 ;
82 [label="famrel <= 2.5\ngini = 0.055\nsamples = 502\nvalue = [9, 488, 5]"] ;
40 -> 82 ;
83 [label="G2 <= 9.5\ngini = 0.211\nsamples = 25\nvalue = [3, 22, 0]"] ;
82 -> 83 ;
84 [label="goout <= 3.5\ngini = 0.48\nsamples = 5\nvalue = [3, 2, 0]"] ;
83 -> 84 ;
85 [label="schoolsup <= 0.5\ngini = 0.444\nsamples = 3\nvalue = [1, 2, 0]"] ;
84 -> 85 ;
86 [label="gini = 0.0\nsamples = 2\nvalue = [0, 2, 0]"] ;
85 -> 86 ;
87 [label="gini = 0.0\nsamples = 1\nvalue = [1, 0, 0]"] ;
85 -> 87 ;
88 [label="gini = 0.0\nsamples = 2\nvalue = [2, 0, 0]"] ;
84 -> 88 ;
89 [label="gini = 0.0\nsamples = 20\nvalue = [0, 20, 0]"] ;
83 -> 89 ;
90 [label="age <= 17.5\ngini = 0.045\nsamples = 477\nvalue = [6, 466, 5]"] ;
82 -> 90 ;
91 [label="Dalc <= 3.5\ngini = 0.023\nsamples = 347\nvalue = [2, 343, 2]"] ;
90 -> 91 ;
92 [label="schoolsup <= 0.5\ngini = 0.012\nsamples = 331\nvalue = [1, 329, 1]"] ;
91 -> 92 ;
93 [label="G2 <= 12.5\ngini = 0.007\nsamples = 269\nvalue = [0, 268, 1]"] ;
92 -> 93 ;
94 [label="gini = 0.0\nsamples = 215\nvalue = [0, 215, 0]"] ;
93 -> 94 ;
95 [label="Dalc <= 1.5\ngini = 0.036\nsamples = 54\nvalue = [0, 53, 1]"] ;
93 -> 95 ;
96 [label="gini = 0.0\nsamples = 43\nvalue = [0, 43, 0]"] ;
95 -> 96 ;
97 [label="goout <= 2.5\ngini = 0.165\nsamples = 11\nvalue = [0, 10, 1]"] ;
95 -> 97 ;
98 [label="guardian_father <= 0.5\ngini = 0.375\nsamples = 4\nvalue = [0, 3, 1]"] ;
97 -> 98 ;
99 [label="activities <= 0.5\ngini = 0.5\nsamples = 2\nvalue = [0, 1, 1]"] ;
98 -> 99 ;
100 [label="gini = 0.0\nsamples = 1\nvalue = [0, 0, 1]"] ;
99 -> 100 ;
101 [label="gini = 0.0\nsamples = 1\nvalue = [0, 1, 0]"] ;
99 -> 101 ;
102 [label="gini = 0.0\nsamples = 2\nvalue = [0, 2, 0]"] ;
98 -> 102 ;
103 [label="gini = 0.0\nsamples = 7\nvalue = [0, 7, 0]"] ;
97 -> 103 ;
104 [label="G2 <= 9.5\ngini = 0.032\nsamples = 62\nvalue = [1, 61, 0]"] ;
92 -> 104 ;
105 [label="goout <= 3.5\ngini = 0.153\nsamples = 12\nvalue = [1, 11, 0]"] ;
104 -> 105 ;
106 [label="gini = 0.0\nsamples = 7\nvalue = [0, 7, 0]"] ;
105 -> 106 ;
107 [label="goout <= 4.5\ngini = 0.32\nsamples = 5\nvalue = [1, 4, 0]"] ;
105 -> 107 ;
108 [label="Dalc <= 1.5\ngini = 0.5\nsamples = 2\nvalue = [1, 1, 0]"] ;
107 -> 108 ;
109 [label="gini = 0.0\nsamples = 1\nvalue = [1, 0, 0]"] ;
108 -> 109 ;
110 [label="gini = 0.0\nsamples = 1\nvalue = [0, 1, 0]"] ;
108 -> 110 ;
111 [label="gini = 0.0\nsamples = 3\nvalue = [0, 3, 0]"] ;
107 -> 111 ;
112 [label="gini = 0.0\nsamples = 50\nvalue = [0, 50, 0]"] ;
104 -> 112 ;
113 [label="guardian_father <= 0.5\ngini = 0.227\nsamples = 16\nvalue = [1, 14, 1]"] ;
91 -> 113 ;
114 [label="gini = 0.0\nsamples = 13\nvalue = [0, 13, 0]"] ;
113 -> 114 ;
115 [label="age <= 16.5\ngini = 0.667\nsamples = 3\nvalue = [1, 1, 1]"] ;
113 -> 115 ;
116 [label="activities <= 0.5\ngini = 0.5\nsamples = 2\nvalue = [1, 0, 1]"] ;
115 -> 116 ;
117 [label="gini = 0.0\nsamples = 1\nvalue = [1, 0, 0]"] ;
116 -> 117 ;
118 [label="gini = 0.0\nsamples = 1\nvalue = [0, 0, 1]"] ;
116 -> 118 ;
119 [label="gini = 0.0\nsamples = 1\nvalue = [0, 1, 0]"] ;
115 -> 119 ;
120 [label="activities <= 0.5\ngini = 0.103\nsamples = 130\nvalue = [4, 123, 3]"] ;
90 -> 120 ;
121 [label="famrel <= 3.5\ngini = 0.027\nsamples = 73\nvalue = [0, 72, 1]"] ;
120 -> 121 ;
122 [label="G2 <= 11.5\ngini = 0.111\nsamples = 17\nvalue = [0, 16, 1]"] ;
121 -> 122 ;
123 [label="gini = 0.0\nsamples = 12\nvalue = [0, 12, 0]"] ;
122 -> 123 ;
124 [label="goout <= 3.5\ngini = 0.32\nsamples = 5\nvalue = [0, 4, 1]"] ;
122 -> 124 ;
125 [label="gini = 0.0\nsamples = 4\nvalue = [0, 4, 0]"] ;
124 -> 125 ;
126 [label="gini = 0.0\nsamples = 1\nvalue = [0, 0, 1]"] ;
124 -> 126 ;
127 [label="gini = 0.0\nsamples = 56\nvalue = [0, 56, 0]"] ;
121 -> 127 ;
128 [label="Pstatus <= 0.5\ngini = 0.193\nsamples = 57\nvalue = [4, 51, 2]"] ;
120 -> 128 ;
129 [label="famrel <= 4.5\ngini = 0.5\nsamples = 2\nvalue = [0, 1, 1]"] ;
128 -> 129 ;
130 [label="gini = 0.0\nsamples = 1\nvalue = [0, 1, 0]"] ;
129 -> 130 ;
131 [label="gini = 0.0\nsamples = 1\nvalue = [0, 0, 1]"] ;
129 -> 131 ;
132 [label="G2 <= 10.5\ngini = 0.168\nsamples = 55\nvalue = [4, 50, 1]"] ;
128 -> 132 ;
133 [label="famrel <= 4.5\ngini = 0.252\nsamples = 27\nvalue = [4, 23, 0]"] ;
132 -> 133 ;
134 [label="goout <= 4.5\ngini = 0.32\nsamples = 20\nvalue = [4, 16, 0]"] ;
133 -> 134 ;
135 [label="famrel <= 3.5\ngini = 0.375\nsamples = 16\nvalue = [4, 12, 0]"] ;
134 -> 135 ;
136 [label="gini = 0.0\nsamples = 2\nvalue = [0, 2, 0]"] ;
135 -> 136 ;
137 [label="goout <= 3.5\ngini = 0.408\nsamples = 14\nvalue = [4, 10, 0]"] ;
135 -> 137 ;
138 [label="G2 <= 9.5\ngini = 0.32\nsamples = 10\nvalue = [2, 8, 0]"] ;
137 -> 138 ;
139 [label="gini = 0.0\nsamples = 4\nvalue = [0, 4, 0]"] ;
138 -> 139 ;
140 [label="age <= 18.5\ngini = 0.444\nsamples = 6\nvalue = [2, 4, 0]"] ;
138 -> 140 ;
141 [label="reason_other <= 0.5\ngini = 0.5\nsamples = 4\nvalue = [2, 2, 0]"] ;
140 -> 141 ;
142 [label="Dalc <= 1.5\ngini = 0.444\nsamples = 3\nvalue = [2, 1, 0]"] ;
141 -> 142 ;
143 [label="gini = 0.5\nsamples = 2\nvalue = [1, 1, 0]"] ;
142 -> 143 ;
144 [label="gini = 0.0\nsamples = 1\nvalue = [1, 0, 0]"] ;
142 -> 144 ;
145 [label="gini = 0.0\nsamples = 1\nvalue = [0, 1, 0]"] ;
141 -> 145 ;
146 [label="gini = 0.0\nsamples = 2\nvalue = [0, 2, 0]"] ;
140 -> 146 ;
147 [label="G2 <= 9.5\ngini = 0.5\nsamples = 4\nvalue = [2, 2, 0]"] ;
137 -> 147 ;
148 [label="gini = 0.0\nsamples = 2\nvalue = [2, 0, 0]"] ;
147 -> 148 ;
149 [label="gini = 0.0\nsamples = 2\nvalue = [0, 2, 0]"] ;
147 -> 149 ;
150 [label="gini = 0.0\nsamples = 4\nvalue = [0, 4, 0]"] ;
134 -> 150 ;
151 [label="gini = 0.0\nsamples = 7\nvalue = [0, 7, 0]"] ;
133 -> 151 ;
152 [label="famrel <= 4.5\ngini = 0.069\nsamples = 28\nvalue = [0, 27, 1]"] ;
132 -> 152 ;
153 [label="gini = 0.0\nsamples = 19\nvalue = [0, 19, 0]"] ;
152 -> 153 ;
154 [label="goout <= 2.5\ngini = 0.198\nsamples = 9\nvalue = [0, 8, 1]"] ;
152 -> 154 ;
155 [label="gini = 0.0\nsamples = 5\nvalue = [0, 5, 0]"] ;
154 -> 155 ;
156 [label="goout <= 3.5\ngini = 0.375\nsamples = 4\nvalue = [0, 3, 1]"] ;
154 -> 156 ;
157 [label="gini = 0.0\nsamples = 1\nvalue = [0, 0, 1]"] ;
156 -> 157 ;
158 [label="gini = 0.0\nsamples = 3\nvalue = [0, 3, 0]"] ;
156 -> 158 ;
159 [label="activities <= 0.5\ngini = 0.492\nsamples = 64\nvalue = [0, 36, 28]"] ;
39 -> 159 ;
160 [label="famrel <= 4.5\ngini = 0.477\nsamples = 28\nvalue = [0, 11, 17]"] ;
159 -> 160 ;
161 [label="Pstatus <= 0.5\ngini = 0.5\nsamples = 20\nvalue = [0, 10, 10]"] ;
160 -> 161 ;
162 [label="gini = 0.0\nsamples = 3\nvalue = [0, 0, 3]"] ;
161 -> 162 ;
163 [label="reason_other <= 0.5\ngini = 0.484\nsamples = 17\nvalue = [0, 10, 7]"] ;
161 -> 163 ;
164 [label="age <= 16.5\ngini = 0.498\nsamples = 15\nvalue = [0, 8, 7]"] ;
163 -> 164 ;
165 [label="goout <= 1.5\ngini = 0.32\nsamples = 5\nvalue = [0, 4, 1]"] ;
164 -> 165 ;
166 [label="guardian_mother <= 0.5\ngini = 0.5\nsamples = 2\nvalue = [0, 1, 1]"] ;
165 -> 166 ;
167 [label="gini = 0.0\nsamples = 1\nvalue = [0, 1, 0]"] ;
166 -> 167 ;
168 [label="gini = 0.0\nsamples = 1\nvalue = [0, 0, 1]"] ;
166 -> 168 ;
169 [label="gini = 0.0\nsamples = 3\nvalue = [0, 3, 0]"] ;
165 -> 169 ;
170 [label="guardian_mother <= 0.5\ngini = 0.48\nsamples = 10\nvalue = [0, 4, 6]"] ;
164 -> 170 ;
171 [label="famrel <= 3.5\ngini = 0.48\nsamples = 5\nvalue = [0, 3, 2]"] ;
170 -> 171 ;
172 [label="Dalc <= 3.0\ngini = 0.444\nsamples = 3\nvalue = [0, 1, 2]"] ;
171 -> 172 ;
173 [label="gini = 0.0\nsamples = 2\nvalue = [0, 0, 2]"] ;
172 -> 173 ;
174 [label="gini = 0.0\nsamples = 1\nvalue = [0, 1, 0]"] ;
172 -> 174 ;
175 [label="gini = 0.0\nsamples = 2\nvalue = [0, 2, 0]"] ;
171 -> 175 ;
176 [label="age <= 17.5\ngini = 0.32\nsamples = 5\nvalue = [0, 1, 4]"] ;
170 -> 176 ;
177 [label="gini = 0.444\nsamples = 3\nvalue = [0, 1, 2]"] ;
176 -> 177 ;
178 [label="gini = 0.0\nsamples = 2\nvalue = [0, 0, 2]"] ;
176 -> 178 ;
179 [label="gini = 0.0\nsamples = 2\nvalue = [0, 2, 0]"] ;
163 -> 179 ;
180 [label="guardian_father <= 0.5\ngini = 0.219\nsamples = 8\nvalue = [0, 1, 7]"] ;
160 -> 180 ;
181 [label="gini = 0.0\nsamples = 6\nvalue = [0, 0, 6]"] ;
180 -> 181 ;
182 [label="Dalc <= 1.5\ngini = 0.5\nsamples = 2\nvalue = [0, 1, 1]"] ;
180 -> 182 ;
183 [label="gini = 0.0\nsamples = 1\nvalue = [0, 1, 0]"] ;
182 -> 183 ;
184 [label="gini = 0.0\nsamples = 1\nvalue = [0, 0, 1]"] ;
182 -> 184 ;
185 [label="goout <= 4.5\ngini = 0.424\nsamples = 36\nvalue = [0, 25, 11]"] ;
159 -> 185 ;
186 [label="famrel <= 4.5\ngini = 0.358\nsamples = 30\nvalue = [0, 23, 7]"] ;
185 -> 186 ;
187 [label="age <= 17.5\ngini = 0.444\nsamples = 18\nvalue = [0, 12, 6]"] ;
186 -> 187 ;
188 [label="Dalc <= 1.5\ngini = 0.49\nsamples = 14\nvalue = [0, 8, 6]"] ;
187 -> 188 ;
189 [label="schoolsup <= 0.5\ngini = 0.5\nsamples = 12\nvalue = [0, 6, 6]"] ;
188 -> 189 ;
190 [label="goout <= 3.5\ngini = 0.496\nsamples = 11\nvalue = [0, 5, 6]"] ;
189 -> 190 ;
191 [label="famrel <= 3.5\ngini = 0.5\nsamples = 10\nvalue = [0, 5, 5]"] ;
190 -> 191 ;
192 [label="age <= 15.5\ngini = 0.444\nsamples = 3\nvalue = [0, 2, 1]"] ;
191 -> 192 ;
193 [label="gini = 0.5\nsamples = 2\nvalue = [0, 1, 1]"] ;
192 -> 193 ;
194 [label="gini = 0.0\nsamples = 1\nvalue = [0, 1, 0]"] ;
192 -> 194 ;
195 [label="age <= 15.5\ngini = 0.49\nsamples = 7\nvalue = [0, 3, 4]"] ;
191 -> 195 ;
196 [label="guardian_father <= 0.5\ngini = 0.5\nsamples = 4\nvalue = [0, 2, 2]"] ;
195 -> 196 ;
197 [label="goout <= 2.5\ngini = 0.444\nsamples = 3\nvalue = [0, 1, 2]"] ;
196 -> 197 ;
198 [label="Pstatus <= 0.5\ngini = 0.5\nsamples = 2\nvalue = [0, 1, 1]"] ;
197 -> 198 ;
199 [label="gini = 0.0\nsamples = 1\nvalue = [0, 0, 1]"] ;
198 -> 199 ;
200 [label="gini = 0.0\nsamples = 1\nvalue = [0, 1, 0]"] ;
198 -> 200 ;
201 [label="gini = 0.0\nsamples = 1\nvalue = [0, 0, 1]"] ;
197 -> 201 ;
202 [label="gini = 0.0\nsamples = 1\nvalue = [0, 1, 0]"] ;
196 -> 202 ;
203 [label="Pstatus <= 0.5\ngini = 0.444\nsamples = 3\nvalue = [0, 1, 2]"] ;
195 -> 203 ;
204 [label="gini = 0.0\nsamples = 1\nvalue = [0, 1, 0]"] ;
203 -> 204 ;
205 [label="gini = 0.0\nsamples = 2\nvalue = [0, 0, 2]"] ;
203 -> 205 ;
206 [label="gini = 0.0\nsamples = 1\nvalue = [0, 0, 1]"] ;
190 -> 206 ;
207 [label="gini = 0.0\nsamples = 1\nvalue = [0, 1, 0]"] ;
189 -> 207 ;
208 [label="gini = 0.0\nsamples = 2\nvalue = [0, 2, 0]"] ;
188 -> 208 ;
209 [label="gini = 0.0\nsamples = 4\nvalue = [0, 4, 0]"] ;
187 -> 209 ;
210 [label="goout <= 2.5\ngini = 0.153\nsamples = 12\nvalue = [0, 11, 1]"] ;
186 -> 210 ;
211 [label="guardian_father <= 0.5\ngini = 0.444\nsamples = 3\nvalue = [0, 2, 1]"] ;
210 -> 211 ;
212 [label="gini = 0.0\nsamples = 1\nvalue = [0, 1, 0]"] ;
211 -> 212 ;
213 [label="gini = 0.5\nsamples = 2\nvalue = [0, 1, 1]"] ;
211 -> 213 ;
214 [label="gini = 0.0\nsamples = 9\nvalue = [0, 9, 0]"] ;
210 -> 214 ;
215 [label="Pstatus <= 0.5\ngini = 0.444\nsamples = 6\nvalue = [0, 2, 4]"] ;
185 -> 215 ;
216 [label="gini = 0.0\nsamples = 1\nvalue = [0, 1, 0]"] ;
215 -> 216 ;
217 [label="age <= 17.0\ngini = 0.32\nsamples = 5\nvalue = [0, 1, 4]"] ;
215 -> 217 ;
218 [label="gini = 0.0\nsamples = 4\nvalue = [0, 0, 4]"] ;
217 -> 218 ;
219 [label="gini = 0.0\nsamples = 1\nvalue = [0, 1, 0]"] ;
217 -> 219 ;
220 [label="reason_other <= 0.5\ngini = 0.03\nsamples = 132\nvalue = [0, 2, 130]"] ;
0 -> 220 [labeldistance=2.5, labelangle=-45, headlabel="False"] ;
221 [label="Dalc <= 1.5\ngini = 0.016\nsamples = 121\nvalue = [0, 1, 120]"] ;
220 -> 221 ;
222 [label="gini = 0.0\nsamples = 103\nvalue = [0, 0, 103]"] ;
221 -> 222 ;
223 [label="age <= 15.5\ngini = 0.105\nsamples = 18\nvalue = [0, 1, 17]"] ;
221 -> 223 ;
224 [label="goout <= 2.5\ngini = 0.444\nsamples = 3\nvalue = [0, 1, 2]"] ;
223 -> 224 ;
225 [label="gini = 0.0\nsamples = 2\nvalue = [0, 0, 2]"] ;
224 -> 225 ;
226 [label="gini = 0.0\nsamples = 1\nvalue = [0, 1, 0]"] ;
224 -> 226 ;
227 [label="gini = 0.0\nsamples = 15\nvalue = [0, 0, 15]"] ;
223 -> 227 ;
228 [label="goout <= 4.5\ngini = 0.165\nsamples = 11\nvalue = [0, 1, 10]"] ;
220 -> 228 ;
229 [label="gini = 0.0\nsamples = 9\nvalue = [0, 0, 9]"] ;
228 -> 229 ;
230 [label="gini = 0.5\nsamples = 2\nvalue = [0, 1, 1]"] ;
228 -> 230 ;
}
